-0.00272433 -0.000771447 4.23386e-05 -0.000152915 -4.20656e-05 0.000140079 -0.00564205 0.000682976 0.000615977 -0.000654198 -0.00427287 -8.0259e-05 -0.000546318 0.0035764 -0.00415292 0.00140096 -0.000218379 0.000725371 -0.000161188 0.000204778 -0.00324683 -0.000232873 0.000259457 0.000322427 -0.000976034 0.00031634 0.000252306 -0.00963653 -0.00270732 -0.00427584 0.00244153 0.001293 -0.000376654 0.000202797 -0.00133299 -0.0054296 0.000236681 0.00492838 0.00132722 -0.000295662 -0.00178453 0.00210365 -0.0039631 -9.40282e-05 0.00201489 0.0003596 0.000305266 0.00377869 -0.00460364 -0.000786039 -0.00111127 0.000402502 0.00205638 -0.00389962 -0.00195886 0.000753067 -0.00128626 0.00107473 0.00312297 0.00211706 0.00353799 -0.00396784 -0.00308714 -0.00551327 -0.00102272 0.00105688 0.00742721 0.00772931 -0.000183266 0.000262298 -0.00122582 0.0019896 -0.000852605 -0.00280034 -0.00200835 -0.00715432 0.011011 -0.000296747 0.000220984 1.12099e-05 -0.00116184 0.000786794 0.000387622 -0.000336316 0.00608507 -0.000501074 -0.0064336 0.000719018 -0.00773411 0.00331536 

