0.00277778 -0.00204706 -0.000652571 -0.000184228 0.00206191 0.00246618 0.000241766 -0.000178785 6.04696e-05 0.000151359 0.00147617 -0.000645408 -0.000464023 -0.000259131 0.00277013 -5.11195e-05 -0.00124706 -0.000255588 -5.47708e-05 -0.000203052 0.00179365 -0.000697434 -0.000771683 -0.000911677 -0.00186212 4.23397e-05 -0.0010173 -1.82255e-05 0.000758949 0.00172962 -0.000323832 -0.00188154 0.00099609 -0.00377638 0.00241012 -0.00149748 7.99044e-05 -0.000704367 0.00015833 0.0013294 -0.000659901 0.000200984 -0.000719995 -0.00186 2.20033e-05 5.7202e-05 0.00121092 -0.000212242 -0.000732085 -0.00198583 2.62594e-05 0.00020253 -0.000661734 -0.000497762 0.00497087 -0.000521372 0.00241164 -6.48261e-05 -0.00133973 0.00393529 0.00118564 0.000184739 -0.000447708 -0.00153373 8.24754e-05 9.82809e-05 -0.00345988 0.000383979 -0.000199216 0.000839695 -0.000337984 -0.00320274 -0.000467716 -0.00102352 -0.000188067 0.000254839 -0.00061455 -0.000270423 0.000172085 -0.00018989 0.000241547 0.000765316 0.00123504 -0.000629765 0.000182876 0.00036006 -0.000322148 -0.000505458 -0.000258342 0.00446016 

