-0.00177934 -2.56204e-05 -0.00016368 1.99404e-05 -0.000886704 5.71246e-05 -0.000142037 0.000963055 -0.00048383 -0.00055415 -0.00318693 -0.000826047 -1.49847e-05 -1.61408e-05 -0.00024724 0.000212459 -1.71702e-05 4.37491e-05 -0.000295138 0.000297545 -0.000244582 -0.00157502 -0.0004665 -0.000877134 -3.73971e-05 0.000439689 3.32309e-06 -0.00158923 7.6393e-05 0.000444835 -0.000998601 1.89664e-05 -0.000413566 0.000297191 0.00117658 0.00166273 0.000309172 -0.00111638 -0.00114144 0.000442276 -0.000257061 0.00155185 0.00103673 0.00134617 0.000178769 -0.00146213 3.71747e-05 -8.96605e-05 -0.00157971 -0.000266901 -0.000145668 0.000716415 -0.000923053 -9.78552e-05 0.00016579 -0.000251566 0.0012371 -0.000308802 0.00011807 -8.72188e-05 -0.000306329 0.000147402 5.21841e-05 -0.000342684 -0.000936323 -0.000530785 5.67834e-06 -0.00147977 0.000607377 0.000210931 -0.00103832 0.000773492 -5.67237e-05 6.90596e-06 0.000544987 5.65439e-05 7.74466e-05 5.88875e-05 0.000426199 -0.000902245 0.000628204 0.000948341 -0.000177486 0.000680553 -0.000774637 -0.000111493 -0.000191448 0.000466284 0.000132084 7.78546e-05 

